Cufon.registerFont({"w":262,"face":{"font-family":"Diavlo Black","font-weight":900,"font-stretch":"normal","units-per-em":"1000","panose-1":"2 0 0 0 0 0 0 0 0 0","ascent":"750","descent":"-250","x-height":"12","cap-height":"10","bbox":"-55 -821.238 1070 247","underline-thickness":"50","underline-position":"-100","stemh":"122","stemv":"168","unicode-range":"U+0020-U+007E"},"glyphs":{" ":{"w":280},"#":{"d":"629,-402r-45,0r-27,110r88,0v7,51,7,127,-72,125r-46,0r-43,180v-68,-9,-165,-22,-138,-121r14,-59r-91,0r-43,180v-68,-9,-165,-22,-138,-121r14,-59r-86,0v-7,-50,-6,-125,74,-125r42,0r27,-110r-87,0v-7,-50,-6,-125,74,-125r43,0r52,-214v68,9,162,21,138,121r-23,93r91,0r52,-214v68,9,162,21,138,121r-23,93r87,0v7,51,7,127,-72,125xm326,-402r-27,110r91,0r27,-110r-91,0","w":717},"$":{"d":"288,54r0,-44v-124,-4,-235,-44,-235,-133v0,-29,13,-63,45,-103v0,84,107,107,190,110r0,-185v-114,-19,-253,-38,-253,-218v0,-156,104,-212,253,-219r0,-83v0,0,71,-7,71,55r0,28v142,5,229,40,229,129v0,32,-13,71,-41,118v12,-93,-96,-113,-188,-120r0,154v114,18,253,43,253,238v0,139,-96,215,-253,227r0,99v0,0,-71,2,-71,-53xm434,-207v0,-45,-31,-66,-75,-79r0,166v56,-10,75,-40,75,-87xm213,-538v0,41,30,58,75,69r0,-141v-50,5,-75,22,-75,72","w":667},"%":{"d":"376,-622r0,109v0,73,-69,109,-173,109v-105,0,-174,-36,-174,-109r0,-109v0,-71,69,-112,174,-112v104,0,173,41,173,112xm203,-506v51,1,32,-54,32,-95v0,-19,-4,-32,-32,-32v-51,-1,-26,54,-32,94v0,20,5,33,32,33xm816,-208r0,109v0,73,-68,109,-174,109v-104,0,-172,-36,-172,-109r0,-109v0,-71,68,-112,172,-112v106,0,174,41,174,112xm642,-92v51,1,32,-54,32,-95v0,-19,-4,-32,-32,-32v-51,-1,-26,54,-32,94v0,20,5,33,32,33xm174,-202r456,-456v42,44,98,90,38,151r-448,449v-47,-51,-100,-89,-46,-144","w":845},"&":{"d":"449,-168v-142,-17,-149,-68,-149,-98r0,-31v-57,10,-78,42,-78,85v0,56,35,98,119,98v89,0,202,-21,202,-130v124,138,33,256,-202,256v-185,-5,-303,-81,-291,-239v0,-60,39,-135,95,-150v-53,-20,-91,-88,-85,-163v0,-126,117,-199,281,-199v244,0,330,135,192,266v0,-122,-111,-139,-192,-139v-88,0,-110,46,-110,104v0,56,17,82,69,87r0,-114v0,0,131,3,131,78r0,36r96,0v0,0,-1,118,-86,124r-10,0v-6,42,14,128,18,129","w":631},"'":{"d":"68,-606v0,-41,-1,-80,-1,-122r69,0v78,2,80,42,78,104v0,68,-20,138,-101,138v-46,0,-71,-26,-79,-38v11,0,34,-14,34,-82","w":264},"(":{"d":"197,-270v0,224,43,432,166,455v0,0,-29,56,-102,56v-108,0,-226,-237,-226,-511v0,-274,118,-513,226,-513v73,0,102,56,102,56v-123,23,-166,229,-166,457","w":368},")":{"d":"171,-270v0,-228,-43,-434,-166,-457v0,0,29,-56,102,-56v108,0,226,239,226,513v0,274,-118,511,-226,511v-73,0,-102,-56,-102,-56v123,-23,166,-231,166,-455","w":368},"*":{"d":"128,-574v-35,1,-59,8,-88,50v-1,0,-13,-33,-13,-75v0,-31,23,-68,92,-68v17,0,29,1,46,5v-12,-28,-40,-44,-92,-54v0,0,35,-55,91,-55v26,0,76,15,88,96v17,-23,14,-80,2,-107v41,0,102,28,102,81v0,28,-9,62,-47,95v36,0,54,0,93,-51v2,0,13,31,13,72v-1,64,-81,81,-139,63v14,31,39,49,94,54v0,0,-37,55,-92,55v-27,0,-70,-13,-89,-96v-19,30,-13,75,1,108v-19,0,-103,-14,-105,-85v0,-26,6,-54,43,-88","w":442},"+":{"d":"191,-108r0,-86r-133,0v-7,-50,-5,-125,74,-125r59,0r0,-125v0,0,30,-6,64,-6v44,0,95,11,95,61r0,70r135,0v6,50,7,126,-72,125r-63,0r0,140v0,0,-29,6,-62,6v-45,0,-97,-11,-97,-60","w":543},",":{"d":"49,-152v66,4,157,-20,156,52r0,84v0,105,-22,161,-115,161v-22,0,-52,-8,-75,-29v68,-18,64,-95,60,-116"},"-":{"d":"120,-313r313,0v8,43,8,116,-60,114r-315,0v-7,-44,-6,-115,62,-114","w":492},".":{"d":"57,-40r0,-112v58,0,145,-9,148,40r0,112v-58,-1,-145,11,-148,-40"},"\/":{"d":"3,147r214,-923v0,0,146,25,131,94r-214,922v0,0,-145,-24,-131,-93","w":352},"0":{"d":"637,-531r0,335v0,139,-117,208,-289,208v-174,0,-291,-69,-291,-208r0,-335v0,-138,117,-208,291,-208v172,0,289,70,289,208xm465,-211r0,-305v0,-71,-35,-101,-117,-101v-84,0,-119,30,-119,101r0,305v0,72,35,102,119,102v82,0,117,-30,117,-102","w":694},"1":{"d":"204,-727v123,0,220,-14,220,-14v-24,165,-9,422,-13,615r170,0v0,0,32,126,-46,126r-462,0v-25,-129,41,-126,87,-126r87,0r0,-475v-84,-3,-137,10,-129,104v-136,-92,-113,-230,86,-230","w":595},"2":{"d":"42,0r0,-115v0,-245,380,-208,380,-381v4,-71,-28,-114,-109,-116v-81,0,-192,20,-192,142v-146,-126,-60,-268,192,-269v179,5,296,83,281,248v0,244,-385,233,-385,353r0,12r288,0v79,0,114,-30,114,-30v0,0,10,156,-103,156r-466,0","w":649},"3":{"d":"311,-612v-81,0,-192,20,-192,142v-138,-133,-52,-269,192,-269v173,4,291,72,281,224v0,57,-38,123,-85,138v64,22,102,97,95,178v0,128,-117,211,-291,211v-261,0,-325,-143,-206,-270v9,123,117,144,206,144v84,0,119,-43,119,-100v0,-37,6,-93,-87,-101v-28,5,-81,-27,-75,-123v87,3,161,0,152,-87v0,-55,-32,-87,-109,-87","w":649},"4":{"d":"2,-178v11,-203,331,-530,364,-561v0,0,149,5,149,77r0,364r94,0v0,9,-2,120,-94,120r0,188v-10,0,-172,-1,-172,-77r0,-111r-341,0xm343,-298r0,-163v0,-32,6,-73,6,-73v-10,21,-21,41,-36,61v-45,55,-83,119,-114,175r144,0","w":621},"5":{"d":"291,12v-252,-1,-330,-131,-206,-270v9,123,117,144,206,144v93,1,136,-51,125,-150v0,-64,-35,-103,-117,-103r-112,0v-86,0,-114,5,-114,5v10,-42,10,-197,9,-268v0,-42,23,-97,83,-97r272,0v87,0,114,-17,114,-17v0,10,1,144,-103,144r-194,0r0,77v0,9,-3,35,-3,35v192,-8,340,47,337,211r0,71v0,139,-125,218,-297,218","w":625},"6":{"d":"637,-264r0,68v0,139,-117,208,-289,208v-174,0,-291,-69,-291,-208r0,-335v0,-138,117,-208,291,-208v259,0,344,121,208,260v-7,-119,-97,-133,-208,-133v-96,-1,-125,35,-119,124v0,18,-5,45,-5,45v0,0,38,-29,134,-29v162,0,279,70,279,208xm348,-109v98,2,124,-46,117,-140v0,-71,-35,-101,-107,-101v-93,-2,-140,39,-129,139v0,72,35,102,119,102","w":689},"7":{"d":"420,-600r-304,0v-89,0,-116,17,-116,17v0,-43,4,-138,105,-144r499,0v12,343,-325,458,-345,717v-52,22,-168,44,-167,-44v0,-198,265,-336,328,-546","w":606},"8":{"d":"348,12v-182,-3,-300,-69,-291,-230v0,-68,37,-136,98,-151v-46,-19,-93,-91,-88,-162v0,-138,117,-208,281,-208v168,2,286,70,279,224v0,58,-43,131,-87,146v65,19,102,88,97,170v0,139,-117,211,-289,211xm465,-208v0,-72,-35,-100,-117,-100v-84,0,-119,28,-119,103v0,70,35,96,119,96v82,0,117,-26,117,-99xm239,-523v-2,76,36,96,117,93v73,0,99,-23,99,-93v0,-71,-35,-94,-107,-94v-74,0,-109,23,-109,94","w":694},"9":{"d":"52,-463r0,-68v0,-139,117,-208,289,-208v174,0,291,69,291,208r0,335v0,138,-117,208,-291,208v-258,0,-344,-119,-208,-260v7,119,97,133,208,133v96,1,125,-35,119,-124v0,-18,5,-45,5,-45v0,0,-38,29,-134,29v-162,0,-279,-70,-279,-208xm341,-618v-98,-2,-124,46,-117,140v0,71,35,101,107,101v93,2,140,-39,129,-139v0,-72,-35,-102,-119,-102","w":689},":":{"d":"72,-40r0,-112v58,0,145,-9,148,40r0,112v-58,-1,-145,11,-148,-40xm72,-364r0,-112v58,0,145,-9,148,40r0,112v-58,-1,-145,11,-148,-40"},";":{"d":"72,-364r0,-112v58,0,145,-9,148,40r0,112v-58,-1,-145,11,-148,-40xm64,-152v66,4,157,-20,156,52r0,84v0,105,-22,161,-115,161v-22,0,-52,-8,-75,-29v68,-18,64,-95,60,-116"},"<":{"d":"204,-259r174,174v-54,106,-124,70,-184,4r-115,-116v-46,-47,-46,-78,1,-125r201,-201v113,63,100,92,23,165","w":443},"=":{"d":"120,-410r313,0v8,43,8,116,-60,114r-315,0v-7,-44,-6,-115,62,-114xm120,-221r313,0v8,43,8,116,-60,114r-315,0v-7,-44,-6,-115,62,-114","w":492},">":{"d":"65,-85r174,-174r-100,-99v-77,-73,-90,-102,23,-165r201,201v47,47,47,78,1,125r-115,116v-60,65,-130,103,-184,-4","w":443},"?":{"d":"280,-612v-68,0,-154,22,-154,110v-128,-106,-67,-237,154,-237v171,4,289,70,279,223v0,175,-240,185,-240,276r0,38v0,0,-153,0,-149,-81v0,-121,217,-142,217,-240v0,-55,-35,-89,-107,-89xm172,-40r0,-112v58,0,145,-9,148,40r0,112v-58,-1,-145,11,-148,-40","w":584},"@":{"d":"248,-162v0,-159,178,-124,273,-196v0,-51,-21,-60,-60,-60v-64,0,-119,23,-134,97v-41,-41,-53,-70,-53,-102v0,-70,92,-116,193,-116v182,3,233,88,221,251v0,22,11,148,-185,155v0,0,21,-24,21,-101r0,-15v-36,45,-123,24,-123,85v0,40,48,64,120,64v116,0,204,-33,204,-161r0,-141v0,-90,-48,-170,-178,-170r-149,0v-129,0,-178,80,-178,170r0,280v0,104,30,178,112,178v23,0,49,-2,81,-15v0,12,-15,118,-154,118v-133,0,-207,-132,-207,-268r0,-306v0,-153,130,-275,347,-275r149,0v216,0,345,122,345,275r0,167v0,205,-177,260,-375,260v-149,0,-270,-40,-270,-174","w":945},"A":{"d":"361,-754v28,16,147,127,213,325v47,129,92,313,149,419v0,0,-51,17,-79,17v-126,0,-137,-105,-171,-194r-224,0v-34,89,-45,194,-171,194v-27,0,-78,-17,-78,-17v57,-105,100,-292,148,-419v66,-199,186,-309,213,-325xm361,-554v-9,21,-64,186,-77,245r154,0v-14,-62,-66,-221,-77,-245","w":723},"B":{"d":"65,-77r0,-650r251,0v169,1,288,49,279,213v0,58,-33,128,-80,146v61,27,95,94,90,173v0,139,-118,195,-289,195r-123,0v0,0,-128,-1,-128,-77xm324,-306r-87,0r0,185r79,0v82,0,117,-24,117,-89v0,-67,-33,-96,-109,-96xm423,-529v9,-84,-99,-77,-186,-76r0,178r87,0v73,0,99,-36,99,-102","w":650},"C":{"d":"376,-612v-88,0,-149,34,-149,145r0,206v0,112,61,147,149,147v92,0,199,-11,254,-119v99,166,-65,245,-254,245v-171,0,-321,-67,-321,-258r0,-235v0,-191,150,-258,321,-258v189,0,369,69,254,245v-44,-102,-162,-118,-254,-118","w":718},"D":{"d":"704,-258v-8,271,-253,264,-512,258v-12,0,-127,-4,-127,-77r0,-650v298,6,630,-59,639,258r0,211xm532,-460v0,-167,-143,-146,-295,-145r0,484v152,1,295,21,295,-147r0,-192","w":759},"E":{"d":"441,-321r-204,0r0,200r357,0v0,7,-2,121,-93,121r-307,0v0,0,-129,0,-129,-77r0,-650r529,0v0,0,0,122,-93,122r-264,0r0,162r188,0v99,0,129,-16,129,-16v0,69,-14,138,-113,138","w":624},"F":{"d":"402,-321r-165,0r0,331v0,0,-172,0,-172,-77r0,-660r499,0v0,0,0,122,-93,122r-234,0r0,162r149,0v99,0,129,-16,129,-16v0,69,-14,138,-113,138","w":551},"G":{"d":"55,-246r0,-235v0,-191,150,-258,321,-258v143,0,291,45,291,147v0,26,-12,60,-39,98v-44,-102,-160,-118,-252,-118v-88,0,-149,34,-149,145r0,206v0,112,61,147,149,147v89,2,150,-25,147,-146v-120,-1,-199,21,-196,-133v45,14,280,11,368,11r0,146v0,187,-150,248,-319,248v-171,0,-321,-67,-321,-258","w":750},"H":{"d":"526,-67r0,-234r-289,0r0,311v0,0,-172,0,-172,-77r0,-670v0,0,172,0,172,77r0,236r289,0r0,-313v0,0,172,0,172,77r0,670v0,0,-172,0,-172,-77","w":763},"I":{"d":"65,-67r0,-670v0,0,172,0,172,77r0,670v0,0,-172,0,-172,-77","w":302},"J":{"d":"246,-658r0,681v0,95,-52,176,-142,176v-101,0,-144,-62,-144,-62v86,0,115,-96,115,-148r0,-726v10,0,171,0,171,79","w":311},"K":{"d":"237,-320r0,330v0,0,-172,0,-172,-77r0,-670v0,0,172,0,172,77r0,218v75,-28,142,-113,205,-226v42,-84,149,-76,217,-57v-93,150,-150,282,-270,343v156,55,235,281,300,376v-72,19,-180,27,-226,-57v-48,-84,-109,-217,-226,-257","w":683},"L":{"d":"478,0r-284,0v0,0,-129,0,-129,-77r0,-660v0,0,172,0,172,77r0,539r205,0v97,0,129,-18,129,-18v0,69,-7,139,-93,139","w":577},"M":{"d":"624,-67v1,-109,-6,-293,13,-370r-152,323v0,0,-116,6,-152,-75r-107,-242v18,102,9,311,11,441v0,0,-172,0,-172,-77r0,-660r106,0v6,0,81,-1,112,67r147,326r184,-393v38,0,182,0,182,77r0,660v0,0,-172,0,-172,-77","w":861},"N":{"d":"281,-664r260,413v-21,-98,-13,-341,-14,-476v0,0,172,0,172,77r0,660v-184,0,-217,-78,-217,-78r-256,-409v18,114,9,344,11,487v0,0,-172,0,-172,-77r0,-660v98,0,176,2,216,63","w":764},"O":{"d":"695,-490r0,253v0,156,-102,249,-319,249v-220,0,-321,-93,-321,-249r0,-253v0,-155,101,-249,321,-249v217,0,319,94,319,249xm523,-250r0,-227v0,-89,-24,-140,-148,-140v-124,0,-148,51,-148,140r0,227v0,89,24,141,148,141v124,0,148,-52,148,-141","w":750},"P":{"d":"65,-67r0,-660v268,2,548,-41,540,260v-3,213,-170,252,-368,246r0,231v0,0,-172,0,-172,-77xm433,-476v0,-129,-84,-131,-196,-129r0,262v113,1,195,6,196,-133","w":639},"Q":{"d":"695,-490r0,253v0,134,-89,223,-250,245v-3,130,292,129,323,23v56,124,-33,197,-197,198v-142,-2,-280,-69,-270,-222v-165,-21,-246,-109,-246,-244r0,-253v0,-155,101,-249,321,-249v217,0,319,94,319,249xm523,-250r0,-227v0,-89,-24,-140,-148,-140v-124,0,-148,51,-148,140r0,227v0,89,24,141,148,141v124,0,148,-52,148,-141","w":750},"R":{"d":"595,-537v8,128,-55,216,-181,222v126,83,161,202,235,307v0,0,-61,16,-85,16v-42,0,-100,-13,-136,-71v-41,-65,-92,-191,-191,-234r0,307v0,0,-172,-3,-172,-77r0,-660r251,0v162,0,279,46,279,190xm423,-522v8,-94,-95,-83,-186,-83r0,181r87,0v73,0,99,-32,99,-98","w":647},"S":{"d":"35,-519v0,-169,137,-220,304,-220v163,0,279,34,279,130v0,32,-13,71,-41,118v14,-106,-139,-119,-237,-121v-74,0,-127,13,-127,74v0,146,429,-11,429,319v0,153,-132,230,-319,230v-131,0,-270,-41,-270,-134v0,-29,13,-63,45,-103v0,91,141,110,225,110v97,0,141,-32,141,-91v0,-165,-429,-8,-429,-312","w":677},"T":{"d":"484,-605r-100,0r0,615v0,0,-172,0,-172,-77r0,-538r-96,0v-99,0,-114,-69,-114,-138v0,0,48,16,130,16r336,0v82,0,129,-16,129,-16v0,69,-13,138,-113,138","w":599},"U":{"d":"695,-660r0,434v0,159,-150,238,-319,238v-171,0,-321,-79,-321,-238r0,-511v0,0,172,0,172,77r0,419v0,83,61,127,149,127v86,0,147,-44,147,-127r0,-496v0,0,172,0,172,77","w":750},"V":{"d":"378,29v-25,-18,-147,-115,-219,-318r-94,-274v-23,-67,-37,-120,-60,-153v0,0,51,-17,78,-17v105,0,127,75,153,150r89,260v25,73,53,130,53,130v36,-75,107,-286,143,-390v26,-75,48,-150,152,-150v28,0,79,17,79,17v-22,33,-38,86,-59,153r-96,274v-71,203,-192,300,-219,318","w":757},"W":{"d":"378,30v0,0,-155,-130,-222,-327r-91,-266v-23,-67,-37,-120,-60,-153v0,0,51,-17,78,-17v105,0,127,75,153,150r89,260v14,42,54,127,54,127v0,0,57,-66,86,-139v0,0,-34,-140,-34,-225v0,-102,69,-152,171,-152v-5,36,-7,72,-7,106v0,236,101,410,101,410v42,-86,104,-277,142,-387v26,-75,50,-150,153,-150v28,0,79,17,79,17v-22,33,-36,87,-59,153r-93,266v-69,196,-222,327,-222,327v0,0,-105,-79,-158,-195v-63,123,-160,195,-160,195","w":1075},"X":{"d":"342,-264v-54,78,-98,148,-126,203v-40,84,-146,76,-214,58v98,-155,129,-255,226,-357v-99,-129,-126,-211,-220,-358v0,0,54,-14,85,-14v42,0,97,12,129,71v59,108,93,167,120,205v27,-38,61,-97,119,-205v42,-88,147,-74,215,-57v-95,147,-121,229,-222,358v98,102,128,202,226,357v0,0,-54,13,-85,13v-39,0,-101,-16,-129,-71v-29,-55,-75,-125,-124,-203","w":682},"Y":{"d":"251,-65r0,-231v-126,-133,-132,-239,-249,-423v0,0,54,-14,85,-14v41,0,99,12,129,71r120,238r122,-249v35,-74,140,-67,212,-44v-102,177,-130,292,-248,421r0,306v0,0,-171,0,-171,-75","w":672},"Z":{"d":"523,0r-498,0v-20,-284,258,-350,365,-605r-356,0v0,0,0,-122,95,-122r464,0v3,296,-342,506,-369,606r263,0v99,0,129,-18,129,-18v-4,68,-17,139,-93,139","w":621},"[":{"d":"65,57r0,-784r274,0v0,0,0,115,-94,115r-31,0r0,630r31,0v92,0,94,110,94,115r-160,0v0,0,-114,0,-114,-76","w":344},"\\":{"d":"259,194r-276,-953v42,-14,157,-41,174,17r275,951v-43,14,-156,45,-173,-15","w":391},"]":{"d":"278,-727r0,784v0,76,-114,76,-114,76r-159,0v0,-5,3,-115,93,-115r31,0r0,-630r-31,0v-93,0,-93,-115,-93,-115r273,0","w":343},"^":{"d":"482,-402r-175,-174r-99,100v-74,74,-120,96,-185,-6r221,-218v49,-44,78,-43,126,-1r115,115v77,74,117,109,-3,184","w":580},"_":{"d":"81,17r546,0v8,53,17,127,-75,125r-547,0v-8,-51,-16,-126,76,-125","w":632},"`":{"d":"261,-797v-28,57,44,93,77,128v55,59,-82,80,-82,80r-55,-42v-89,-68,-66,-153,60,-166","w":489},"a":{"d":"344,-112r0,-136v-27,42,-141,26,-141,90v0,47,34,57,68,57v36,0,73,-11,73,-11xm258,-420v-77,0,-163,23,-163,118v-37,-49,-46,-85,-46,-116v0,-101,142,-121,211,-121v163,0,249,63,249,179r0,372v-79,-40,-161,-1,-254,0v-112,0,-220,-38,-220,-164v0,-183,260,-149,306,-216v0,-24,-18,-52,-83,-52","w":559},"b":{"d":"544,-354r0,180v0,119,-88,186,-253,186v-82,0,-155,-36,-236,-36r0,-750v17,0,168,1,168,87v-1,55,3,139,-7,179v0,0,50,-31,110,-31v116,0,218,70,218,185xm223,-349r0,233v23,10,43,13,66,13v127,7,77,-132,87,-236v0,-57,-26,-82,-63,-82v-45,0,-90,29,-90,72","w":589},"c":{"d":"463,-209v89,114,9,220,-167,221v-154,0,-251,-70,-251,-188r0,-175v0,-117,86,-188,241,-188v67,0,203,19,203,121v0,33,-14,74,-47,122v0,-89,-64,-124,-120,-124v-54,0,-109,8,-109,102r0,106v0,75,34,102,105,102v86,0,144,-49,145,-99","w":524},"d":{"d":"366,-774v17,0,168,1,168,87r0,699v-64,-39,-186,-1,-244,0v-155,0,-245,-67,-245,-186r0,-180v0,-115,102,-185,220,-185v59,0,108,31,108,31v-13,-68,-5,-184,-7,-266xm366,-108r0,-241v0,-43,-43,-72,-88,-72v-38,0,-65,25,-65,82v9,105,-38,244,89,237v28,0,64,-6,64,-6","w":589},"e":{"d":"279,-421v-58,-2,-69,44,-66,107v48,13,128,18,127,-47v0,-36,-17,-60,-61,-60xm308,12v-171,0,-263,-70,-263,-188r0,-175v0,-117,86,-188,241,-188v155,0,221,71,221,178v0,88,-45,170,-212,170v-51,0,-82,-16,-82,-16v-5,68,33,97,100,97v104,0,166,-47,167,-99v90,117,3,219,-172,221","w":551},"f":{"d":"55,-70r0,-549v0,-117,128,-188,259,-188v180,0,276,95,139,195v0,-50,-64,-72,-131,-72v-57,0,-99,39,-99,92r0,95r171,0v0,0,-1,122,-93,122r-78,0r0,382v0,0,-168,0,-168,-77","w":392},"g":{"d":"520,-540r0,215v0,118,-84,188,-239,188v-66,0,-124,-25,-124,-25v0,0,-4,16,-4,28v-2,45,82,46,144,45v114,0,238,-8,238,151v0,109,-80,180,-255,180v-212,-3,-286,-84,-192,-206v16,86,116,89,176,89v76,0,108,-16,108,-54v3,-49,-75,-37,-127,-39v-119,0,-215,-17,-215,-115v0,-41,23,-73,59,-116v-39,-43,-53,-99,-49,-165v0,-128,109,-175,217,-175v102,5,169,46,263,-1xm281,-254v86,5,74,-79,74,-158v-66,-21,-159,-20,-147,72v0,55,12,86,73,86","w":560},"h":{"d":"223,-349r0,356v0,0,-168,0,-168,-77r0,-704v16,0,168,-1,168,87v-1,54,4,136,-7,175v0,0,49,-27,110,-27v116,0,218,55,218,185r0,361v0,0,-168,-3,-168,-77r0,-269v0,-58,-30,-80,-72,-80v-40,0,-81,26,-81,70","w":599},"i":{"d":"55,-70r0,-464v14,0,168,3,168,77r0,464v0,0,-168,0,-168,-77xm58,-628r0,-97r108,0v30,0,52,23,52,38r0,96v-58,-2,-156,14,-160,-37","w":278},"j":{"d":"222,-457r0,527v0,90,-51,169,-137,169v-30,0,-74,-3,-140,-60v82,0,110,-91,110,-141r0,-572v0,0,167,0,167,77xm58,-628r0,-97r108,0v30,0,52,23,52,38r0,96v-58,-2,-156,14,-160,-37","w":277},"k":{"d":"533,-519v-66,87,-83,178,-179,229v141,61,139,137,215,280v0,0,-74,17,-98,17v-156,0,-77,-184,-248,-228r0,228v0,0,-168,0,-168,-77r0,-706v0,0,168,0,168,77r0,351v35,-15,63,-58,102,-131v28,-54,83,-55,105,-55v36,0,72,5,103,15","w":569},"l":{"d":"50,-162r0,-614v11,0,168,1,168,77r0,505v0,55,1,149,61,154v-26,42,-62,47,-91,47v-95,0,-138,-79,-138,-169","w":278},"m":{"d":"376,-70r0,-277v0,-41,-19,-72,-76,-72v-35,0,-77,8,-77,8r0,418v0,0,-168,0,-168,-77r0,-472v0,0,39,23,116,23v47,0,92,-20,143,-20v97,0,160,41,160,41v0,0,61,-41,172,-41v123,0,219,65,219,188r0,358v0,0,-168,-2,-168,-77r0,-263v0,-65,-33,-88,-76,-88v-38,0,-77,22,-77,61r0,367v0,0,-168,-4,-168,-77","w":920},"n":{"d":"379,-70r0,-277v0,-47,-19,-72,-76,-72v-35,0,-77,9,-77,9r0,417v0,0,-168,0,-168,-77r0,-472v0,0,44,24,110,24v49,0,96,-21,149,-21v112,0,230,38,230,177r0,369v0,0,-168,-2,-168,-77","w":602},"o":{"d":"565,-351r0,175v0,118,-83,188,-259,188v-178,0,-261,-70,-261,-188r0,-175v0,-117,83,-188,261,-188v176,0,259,71,259,188xm306,-105v134,7,80,-126,91,-231v0,-55,-16,-85,-91,-85v-137,-7,-81,124,-93,230v0,55,16,86,93,86","w":610},"p":{"d":"216,-19v13,68,5,183,7,266v-15,0,-168,-1,-168,-86r0,-703v78,47,184,8,274,3v130,0,215,76,215,186r0,180v0,116,-102,185,-218,185v-60,0,-110,-31,-110,-31xm223,-417r0,239v0,43,45,73,90,73v37,0,63,-25,63,-83v-9,-105,38,-243,-89,-236v-35,0,-64,7,-64,7","w":589},"q":{"d":"366,-178r0,-239v0,0,-32,-7,-64,-7v-128,-7,-80,131,-89,236v0,58,27,83,65,83v45,0,88,-30,88,-73xm534,-542r0,789v-15,0,-168,0,-168,-85v0,-56,-3,-143,7,-184v0,0,-48,34,-108,34v-118,0,-220,-69,-220,-185r0,-180v0,-114,91,-186,217,-186v83,4,198,45,272,-3","w":589},"r":{"d":"223,7v0,0,-168,0,-168,-77r0,-472v88,49,140,7,248,3v71,0,148,24,148,103v0,70,-61,119,-61,119v0,-94,-92,-109,-167,-92r0,416","w":449},"s":{"d":"350,-162v0,-87,-325,18,-325,-203v0,-119,86,-174,241,-174v200,-1,276,85,171,203v0,-58,-85,-82,-154,-82v-52,0,-93,12,-93,42v0,79,325,-24,325,219v0,106,-83,169,-249,169v-216,0,-298,-107,-167,-222v4,97,113,103,167,103v32,0,84,-5,84,-55","w":540},"t":{"d":"55,-176r0,-431v0,0,168,-11,168,78r0,32r199,0v0,0,-1,122,-93,122r-106,0r0,171v0,62,14,95,87,95v49,0,110,-15,110,-104v33,31,54,61,54,100v0,56,-39,125,-190,125v-150,0,-229,-70,-229,-188","w":474},"u":{"d":"223,-457r0,277v0,47,20,73,78,73v34,0,75,-10,75,-10r0,-417v0,0,168,0,168,77r0,473v0,0,-45,-25,-108,-25v-51,0,-98,21,-149,21v-112,0,-232,-38,-232,-177r0,-369v0,0,168,4,168,77","w":599},"v":{"d":"539,-534r-24,199v-29,237,-237,359,-239,360v-2,-1,-211,-123,-238,-360r-23,-199v0,0,162,0,173,74r20,140v21,148,68,179,68,179v0,0,49,-40,69,-179r20,-140v11,-74,174,-74,174,-74","w":554},"w":{"d":"568,25v-32,-16,-97,-50,-150,-119v-59,71,-142,119,-142,119v0,0,-211,-123,-238,-360r-23,-199v0,0,162,0,173,74r20,140v22,152,70,178,70,178v0,0,50,-36,79,-77v-15,-53,-24,-130,-18,-200v6,-99,161,-99,161,-99v-7,63,-11,114,-11,156v0,134,31,178,78,220v71,-70,69,-199,90,-318v10,-74,171,-74,171,-74r-21,199v-25,237,-239,360,-239,360","w":843},"x":{"d":"215,-473r61,114r61,-114v42,-75,147,-64,214,-48v-75,94,-76,123,-132,212v-16,28,-43,50,-43,50v0,0,32,21,46,46v48,79,64,131,129,208v-64,13,-178,27,-216,-49r-59,-115r-59,115v-41,75,-148,63,-216,49v67,-80,79,-127,129,-208v14,-25,46,-46,46,-46v0,0,-27,-22,-43,-50v-54,-86,-61,-122,-132,-212v63,-15,175,-28,214,48","w":551},"y":{"d":"193,-80v-71,-47,-133,-148,-145,-255r-23,-199v0,0,162,0,173,74r20,140v18,129,68,156,68,156v0,0,52,-37,69,-156r20,-140v10,-74,173,-74,174,-74r-24,199v-25,157,-115,252,-204,314v-63,48,-111,93,-111,161v0,45,20,81,20,81v-89,47,-180,10,-178,-102v0,-93,63,-141,141,-199","w":564},"z":{"d":"275,-405r-245,0v0,0,0,-122,95,-122r369,0v-11,35,-13,70,-24,107v-27,95,-180,190,-260,299r283,0v0,0,0,121,-93,121r-373,0v-9,-40,-8,-47,-8,-55v0,-151,192,-247,256,-350","w":504},"{":{"d":"5,-272v0,0,50,-37,50,-98r0,-270v1,-145,164,-160,222,-55v-78,0,-69,47,-69,91r0,239v0,33,-8,66,-46,93v38,27,46,60,46,95r0,239v0,46,-9,91,69,91v-57,112,-221,87,-222,-55r0,-270v0,-52,-50,-100,-50,-100","w":282},"|":{"d":"65,165r0,-942v0,0,168,0,168,77r0,942v0,0,-168,0,-168,-77","w":298},"}":{"d":"277,-272v0,0,-50,48,-50,100r0,270v-1,142,-165,167,-222,55v78,0,69,-45,69,-91r0,-239v0,-35,8,-68,46,-95v-38,-27,-46,-60,-46,-93r0,-239v0,-44,9,-91,-69,-91v59,-105,221,-90,222,55r0,270v0,61,50,98,50,98","w":282},"~":{"d":"163,-463v147,0,221,48,357,53v46,0,83,-14,128,-61v10,25,13,49,13,69v0,83,-49,114,-132,114v-145,0,-215,-51,-353,-51v-52,0,-99,11,-138,58v-33,-103,-7,-185,125,-182","w":686},"\"":{"d":"68,-606v0,-41,-1,-80,-1,-122r69,0v78,2,80,42,78,104v0,68,-20,138,-101,138v-46,0,-71,-26,-79,-38v11,0,34,-14,34,-82xm295,-606v0,-41,-1,-80,-1,-122r69,0v78,2,80,42,78,104v0,68,-20,138,-101,138v-46,0,-71,-26,-79,-38v11,0,34,-14,34,-82","w":491},"!":{"d":"263,-660r0,458v-6,0,-168,4,-168,-75r0,-460v0,0,168,0,168,77xm107,-40r0,-112v58,0,145,-9,148,40r0,112v-58,-1,-145,11,-148,-40","w":318}}});